// Neural Network File Format by Kyle Julian, Stanford 2016
4,6,3,32,
6,32,32,32,3,
0,
0,0,0,0,0,0,
0,0,0,0,0,0,
0.0,0.0,0.0,0.0,0.0,0.0,0.0,
1.0,1.0,1.0,1.0,1.0,1.0,1.0,
-5.26933e-01,3.72262e-01,4.67881e-02,-4.38441e-01,4.20471e-01,8.51362e-02,
-9.29915e-01,-3.57851e-02,4.15555e-01,-2.20046e-01,-5.34126e-02,7.57399e-02,
-1.14265e+00,2.93098e-01,6.45616e-01,7.39434e-03,-4.46451e-01,-6.15635e-02,
-4.03052e-01,3.37309e-01,1.45882e-02,-2.54978e-01,-1.11576e-01,4.28983e-01,
7.99775e-02,-4.34055e-01,-2.18834e+00,-6.70937e-04,-4.07771e-02,-4.26324e-01,
-1.19305e+00,1.47795e+00,-4.50560e-02,-1.89430e-01,2.86319e-01,-2.85938e-02,
-1.00405e-01,7.03931e-03,-3.44173e-03,-8.58017e-02,6.26172e-02,2.06552e-02,
1.44363e+00,8.02526e-01,3.33085e-01,1.95395e-01,-5.64388e-02,2.49658e-01,
-8.10387e-01,1.64780e+00,-1.47509e-01,-1.90517e-01,3.59034e-01,-7.81734e-03,
-6.12956e-01,-1.49229e+00,2.40183e-02,-2.40109e-01,1.33514e-01,-2.20998e-01,
1.07788e+00,-2.00930e-01,-1.49155e-01,2.52908e-01,-1.88158e-02,-8.46501e-02,
1.21780e+00,1.04842e+00,-7.64505e-01,2.20690e-01,2.37353e-01,-1.42146e-01,
-5.44588e-01,2.23488e-01,1.83652e+00,-6.20942e-02,1.59091e-02,3.67850e-01,
-1.03719e+00,1.06747e+00,9.93988e-01,-2.32634e-01,2.06742e-01,2.07151e-01,
4.63934e-01,1.02643e-01,-3.51943e-01,-1.96425e-01,3.40357e-01,-2.22871e-01,
-9.80498e-02,-2.99287e-02,1.99031e-01,1.32639e-01,-1.89297e-01,2.10981e-01,
-2.42053e-02,1.13222e-01,-4.34923e-01,-4.85294e-02,1.72931e-01,2.66826e-01,
-4.53145e-01,2.51780e-01,-7.99377e-01,-3.39879e-02,8.18257e-02,-4.48693e-01,
-8.64169e-01,-1.54003e+00,7.45646e-01,-2.22198e-01,-3.23778e-01,1.39038e-01,
6.37029e-01,9.35599e-02,2.07604e+00,3.46112e-02,1.00487e-02,3.54837e-01,
-1.05973e+00,-1.60941e-01,4.48804e-01,-1.07439e-01,2.47105e-01,6.93720e-01,
9.56887e-01,-1.80929e+00,4.31109e-02,1.81849e-01,-3.69048e-01,6.04783e-03,
7.59128e-01,-4.14529e-01,-1.10933e-01,-2.22728e-01,-1.23880e-01,-3.17779e-01,
-2.47439e-01,1.28687e-01,2.11426e+00,2.71557e-03,-4.67404e-02,4.28767e-01,
1.80854e+00,2.99549e-01,1.74703e-01,3.83909e-01,8.49008e-02,-9.03013e-03,
-8.00721e-01,3.55073e-02,3.56415e-01,1.62227e-01,3.75725e-01,1.92081e-02,
1.52933e-01,-8.32575e-01,1.87358e+00,1.00128e-01,-9.10352e-02,3.42286e-01,
-1.06208e-01,2.22845e-01,-2.31786e+00,2.06630e-02,8.02974e-02,-3.88381e-01,
1.60727e+00,1.06354e+00,7.23485e-01,3.22402e-01,2.16026e-01,2.37715e-01,
-1.86108e+00,-8.31340e-01,-5.38029e-01,-3.51291e-01,-1.47255e-01,-1.17705e-01,
1.15272e-01,-1.80610e-01,-2.08709e+00,3.37972e-02,-3.65925e-02,-4.77439e-01,
8.56459e-01,1.03519e+00,-9.67229e-01,7.90504e-02,1.95929e-01,-3.19665e-01,
-1.60756e-01,
1.32184e-01,
-5.28658e-01,
-3.08938e-01,
9.88922e-02,
-3.34570e-01,
-3.41528e-01,
-4.50908e-01,
-1.38987e-01,
-3.91578e-01,
2.18560e-01,
-2.27742e-01,
8.32705e-02,
1.55913e-02,
-1.80210e-01,
-3.23433e-02,
6.20791e-02,
-1.31517e-02,
-3.14136e-02,
1.47891e-01,
-2.99920e-01,
-1.42153e-01,
-3.45060e-01,
6.90894e-02,
-1.15276e-01,
-2.23731e-01,
9.29012e-02,
4.97143e-02,
-2.06704e-01,
-2.29624e-01,
-1.66342e-01,
-3.08640e-02,
4.65772e-01,-5.92660e-02,-1.66865e-02,-6.60910e-02,5.75555e-02,-9.35576e-01,9.68241e-02,-6.19498e-02,9.64061e-02,-5.96793e-02,6.13500e-02,-8.73724e-01,-1.61233e-01,-3.96673e-01,-1.29595e-01,-1.97015e-01,8.30852e-02,2.00017e-01,8.55459e-02,-3.26251e-01,4.83664e-02,-4.39725e-01,-3.76721e-02,5.67800e-02,-5.04348e-01,2.82481e-01,-6.00016e-02,-5.96127e-01,-2.00628e+00,-7.03850e-01,1.89150e-01,-2.64597e-01,
-1.99559e-02,1.08287e-02,1.17006e-02,2.15954e-01,-3.96859e-01,-6.36074e-01,-1.06931e-01,2.62424e-01,-1.19132e+00,-1.38148e-01,3.40156e-01,-6.42469e-01,-1.44449e-01,-6.24183e-01,-1.12542e-01,1.35445e-01,3.07037e-01,2.59791e-01,-4.78313e-01,8.65945e-02,1.31800e-02,-9.59918e-01,1.70552e-01,-8.30354e-02,-1.26870e+00,1.14308e-01,-4.33656e-01,-9.68075e-01,-4.96802e-01,-1.18479e+00,-4.90309e-02,-1.15053e-01,
3.03203e-01,-1.13973e-01,-1.66859e-01,-3.57073e-02,-5.64874e-01,-6.64389e-01,-6.71441e-02,-1.90849e-01,-5.85839e-01,-3.49487e-01,3.02632e-02,-3.16286e-01,-9.27745e-02,2.32215e-01,1.74934e-01,1.70626e-01,-6.00323e-02,3.72393e-02,-1.53141e+00,2.12093e-01,7.84168e-02,-4.55840e+00,-9.77098e-02,2.03307e-01,-4.77770e-02,1.44550e-01,-5.38172e-01,3.73653e-01,4.32756e-02,-2.56674e-01,-5.29060e-01,4.01485e-01,
-8.75665e-01,2.07752e-01,2.45801e-01,-6.34198e-02,4.80258e-02,-4.78000e-02,5.95090e-02,-2.56885e-02,3.41224e-01,-1.55313e+00,-4.86745e-01,5.38055e-01,1.39503e-01,-8.57598e-01,-5.55840e-01,6.07127e-01,-1.91046e-01,-2.59994e-01,5.36117e-01,-1.53146e-01,2.46789e-01,-3.12117e-01,1.05587e-01,-1.94598e-02,-5.58327e-01,-8.91806e-02,5.06500e-01,-1.15230e-01,-1.04981e-01,3.73662e-01,4.94927e-02,-9.43033e-02,
6.56762e-01,-3.52015e-01,1.53482e-01,-1.14637e+00,2.93551e-01,3.25885e-01,1.49609e-01,-4.17892e-01,2.82928e-01,2.77991e-01,1.52857e-01,-5.30046e-01,-1.90613e-01,-3.34314e-01,3.56635e-01,-1.26233e+00,-1.68879e+00,5.33081e-01,-4.89664e-02,6.18048e-02,-7.93990e-01,-9.61268e-02,2.00839e-01,1.92094e-02,4.09008e-01,4.19463e-01,-5.97411e-02,7.88172e-02,2.54952e-02,1.53312e-01,-1.60740e-02,3.64419e-01,
1.14629e+00,-5.45908e-01,-1.65323e-01,-1.03147e-01,-2.53000e-01,-1.06052e-01,6.22573e-02,-3.06849e-01,-1.58570e-01,-4.75492e-02,5.55108e-01,2.24177e-01,3.41839e-03,2.65027e-01,-3.94077e-01,1.01238e+00,1.65575e-01,2.39305e-01,-1.63063e-01,-6.14970e-02,3.82950e-01,8.18980e-02,-4.09322e-01,-5.90154e-02,3.83542e-02,6.70486e-01,1.72173e-01,5.84346e-02,3.32149e-01,-4.64431e-01,2.21371e-01,-1.99467e-01,
-3.22457e-02,-7.66196e-02,-6.74225e-02,7.52911e-02,4.13424e-02,-2.15608e-01,-8.29774e-02,-4.33587e-01,4.42974e-01,3.62031e-01,1.01320e-01,3.42816e-01,-4.66729e-01,-2.42897e-02,2.89741e-02,-4.13555e-01,7.23604e-02,8.10018e-02,1.88077e-02,-3.50038e-01,-1.07108e-02,-3.31684e-02,2.15105e-01,-1.05563e-01,-1.29629e-01,1.58576e-01,-1.78554e-01,-4.80446e-01,2.03524e-01,-8.18385e-02,-1.21767e+00,-3.92187e-01,
-7.59906e-01,5.79325e-02,9.51526e-02,4.62820e-01,2.02685e-01,-4.13088e-03,1.57780e-01,2.55663e-01,8.42585e-02,-3.91561e-01,-2.42063e-01,4.31393e-01,-2.74285e-01,1.08109e-01,5.63628e-01,1.54696e-01,-1.47384e-01,-5.51778e-01,2.78161e-01,3.56425e-01,1.34960e+00,9.99975e-02,5.62420e-01,-1.06833e-01,-8.68570e-01,-9.91710e-01,1.34300e-01,-9.23510e-01,5.12961e-02,-1.06220e-01,6.76047e-01,-4.15711e-01,
2.97069e-01,2.34016e-02,-6.04379e-01,-6.15931e-01,6.43732e-01,-8.54936e-01,1.45115e-01,-1.79713e+00,-2.85903e-01,-3.98734e-02,1.58384e-01,7.92185e-02,-6.10270e-01,4.85185e-02,-1.13838e-01,6.16776e-02,-1.37620e-02,-3.12068e-02,9.59486e-02,-6.73569e-01,-2.66074e-01,-3.73852e-02,-9.95074e-02,-7.99785e-01,-5.31992e-01,-2.60450e-01,-7.97684e-01,9.29317e-01,-2.56716e-02,-3.50095e-01,-2.41069e+00,7.64532e-02,
-2.99377e-01,7.46138e-02,3.68953e-01,2.56265e-01,-9.92969e-02,-3.30855e-02,-7.15121e-02,-3.43656e-01,-8.53336e-01,2.45474e-01,4.03922e-01,-8.36512e-01,-1.51015e-01,-5.92296e-01,4.48408e-02,2.16239e-02,3.14012e-01,-5.27027e-02,-2.01849e-01,4.83893e-02,1.23569e-01,-8.00210e-01,3.93330e-02,1.49626e-02,-3.38114e-01,-7.13131e-03,-1.24012e-01,-4.27183e-01,-1.11915e+00,-3.87948e-01,-1.51664e-01,-2.41156e-01,
5.16709e-01,-5.59462e-02,1.26771e+00,-4.73350e-01,2.34761e-01,-3.28568e-01,1.50164e-01,1.12914e-01,-1.91802e-01,-7.20118e-01,7.83141e-02,-2.04135e-02,-5.27931e-01,-4.87673e-01,-2.77669e-01,-1.40517e-01,2.97441e-01,-1.34602e-01,-1.33752e+00,-8.10856e-01,1.70622e-01,-1.18924e+00,-1.67142e-01,-5.59972e-01,-5.13287e-01,-1.74376e-01,-8.22530e-01,4.50956e-01,-7.37881e-01,-5.89432e-01,-1.38154e+00,1.25373e-01,
-6.45460e-01,-1.28592e+00,-1.42420e+00,-5.00984e-01,2.09612e-01,2.52217e-01,1.05763e-01,-2.67561e-01,-2.48591e-01,1.26414e-01,6.53911e-01,2.93995e-01,-1.51602e+00,2.06596e-02,3.82797e-02,4.79461e-01,1.95003e-01,-4.31639e-01,-4.00083e-01,-3.40778e-02,-3.09823e-01,9.06450e-02,6.06337e-02,-9.62255e-01,-7.08381e-01,-2.81596e-01,-1.85908e-01,-1.02050e-01,-8.54535e-01,1.09560e-01,-3.40799e-01,1.64532e-01,
-2.68588e-01,-7.81527e-02,-2.46831e-01,2.13247e-01,-4.70572e-01,-7.66989e-01,9.22210e-02,-2.72249e-01,-8.31419e-01,4.13333e-01,1.56300e-01,-3.94676e-01,-7.24514e-02,-7.08924e-01,1.17106e-01,1.57462e-01,1.16738e-01,3.78484e-01,-4.42424e-01,-1.86826e-01,3.55094e-02,-1.15425e+00,-2.48891e-01,2.57025e-02,-5.40423e-01,-8.03462e-02,-2.23950e-01,-1.05810e-01,-7.87421e-01,-2.26611e+00,-7.97746e-01,-1.75023e-01,
-1.34236e-02,-1.98972e-01,-1.40237e-01,6.53905e-02,-8.13140e-02,-4.76056e-02,-1.64159e-01,-1.86128e-01,5.74051e-02,4.23322e-02,-1.51483e-01,-1.25669e-01,-1.50339e-01,5.48323e-02,-1.44450e-01,3.18149e-03,-1.22944e-01,-7.25168e-03,-1.28816e-01,7.88478e-02,-5.75949e-02,-9.48805e-02,-1.82287e-01,-6.85351e-02,-3.81696e-02,2.44369e-02,-1.34992e-01,-9.65480e-02,2.80122e-02,6.38677e-02,-2.41598e-02,1.24725e-01,
-3.51673e-01,2.19560e-01,2.15665e-01,-1.70089e-02,2.78735e-01,-6.24044e-01,1.93017e-02,8.40701e-02,2.06076e-01,-9.12212e-01,-2.55081e-01,-5.81245e-01,-1.47138e-01,2.23321e-02,-4.14069e-01,1.43718e-02,-5.24205e-02,2.47935e-01,-1.28548e+00,-8.63056e-01,-9.18814e-01,-2.16268e+00,-3.28797e-01,-2.88377e-01,6.10560e-02,-2.26193e-01,-9.30338e-01,6.81152e-01,-2.37715e-01,-7.55229e-01,-1.66417e+00,3.03866e-01,
-4.58479e-01,2.54483e-01,7.58163e-01,8.67779e-01,1.47134e-01,-5.83012e-01,-1.70574e-01,7.56263e-02,-6.49566e-02,-4.42949e-01,-4.22333e-01,2.47152e-01,1.35675e-01,-2.52834e-01,1.71924e-01,2.17259e-01,-3.84676e-01,3.61862e-01,5.12971e-01,-3.96474e-01,-7.99525e-01,1.79782e-01,7.30838e-01,-1.58576e-01,-8.40442e-01,-7.33692e-01,1.50727e-01,1.02487e-01,-1.60365e-01,4.70868e-01,-2.00953e-01,1.08704e-01,
-3.19777e-01,2.57033e-01,-8.39547e-02,2.14126e-01,2.97530e-01,-1.13028e+00,-1.36892e-01,-1.84191e-01,2.21061e-01,-1.22217e-01,-8.66581e-03,-6.27621e-01,-5.11206e-01,-4.67759e-02,-3.69537e-01,-5.88164e-02,-1.22072e-02,1.31168e-01,1.66712e-01,-9.67812e-01,-1.04430e+00,-1.09516e-01,-1.91379e-01,-7.27879e-01,3.44599e-01,2.30823e-01,-3.69954e-01,3.13731e-01,-1.08577e+00,-2.29907e-01,-1.88283e+00,5.39578e-01,
8.05037e-01,2.04182e-01,-7.04147e-01,-1.23548e-01,-2.61534e-02,1.01494e-01,-1.65401e-01,-1.60649e-01,-4.95431e-02,2.07130e-01,-1.21016e+00,-2.19852e-01,3.66914e-01,2.90884e-01,-7.61610e-01,-2.75489e-01,2.31447e-01,5.01372e-01,-2.50680e-01,-7.31981e-02,-2.86857e-02,-2.44233e-01,-7.32792e-01,1.91074e-01,5.03979e-01,2.76780e-01,-3.51518e-01,1.92507e-01,-1.95166e-01,-4.31242e-01,9.74520e-02,-2.18480e-01,
-5.87201e-01,-6.13899e-01,4.63122e-01,-5.91362e-01,2.52914e-02,1.56045e-01,-1.12191e-01,-1.30628e+00,-6.69343e-01,-1.16327e+00,2.05038e-01,3.75792e-01,-4.02972e-01,5.46822e-01,-9.22746e-02,-5.70172e-01,1.02570e-01,-3.88074e-01,-2.73407e-01,4.59324e-02,-3.66878e-01,7.52020e-01,-5.73187e-01,-4.33682e-01,-6.20138e-03,5.10930e-02,2.58858e-01,-1.52239e-01,-8.05942e-01,7.54739e-01,-3.39496e-01,-1.33395e-01,
-6.84619e-02,1.58095e-01,-1.66839e-01,-1.60776e-02,4.12935e-01,-9.48314e-01,1.34564e-01,-1.42673e+00,-2.00065e-01,3.72583e-01,1.92216e-01,-1.09203e+00,-6.34053e-01,-4.76043e-01,4.62915e-01,4.45597e-01,2.70550e-01,3.75483e-02,-6.46229e-01,-1.11891e+00,-3.00617e-02,-5.14793e-01,1.50905e-01,-5.75204e-01,-4.92832e-01,5.44796e-02,-2.00022e-01,3.00249e-01,-1.13899e+00,-6.76597e-01,-1.51974e+00,-9.02160e-02,
-8.26043e-02,1.99195e-01,4.02752e-02,1.41217e-01,-3.10339e-01,-6.57025e-01,1.57606e-01,-1.91239e-01,-1.02262e+00,-1.61565e-01,1.89288e-01,-3.35901e-01,-2.84871e-01,-3.52646e-01,2.53673e-01,-2.59790e-02,2.60634e-01,-1.21340e-01,-4.65688e-01,2.97050e-02,-6.43225e-02,-1.14326e+00,2.00031e-01,-2.62785e-01,-1.11240e+00,-1.30822e-01,-2.72557e-01,-2.99008e-01,-6.56138e-01,-9.82642e-01,-6.67777e-01,-3.56467e-01,
-9.00320e-02,-7.83198e-02,-4.58921e-01,-1.07485e-01,1.66664e-01,7.17039e-01,1.05630e-01,4.55196e-01,9.15539e-01,-1.77657e-02,-1.69267e-01,4.89067e-01,1.20732e-01,7.15405e-01,-1.37979e-02,2.70530e-02,5.04916e-02,9.90109e-02,5.07391e-01,3.54170e-01,1.11388e-02,1.09706e+00,-8.54342e-02,-1.43019e-01,6.36326e-01,-1.66288e-01,4.17289e-01,3.02070e-01,8.37028e-01,1.20596e+00,6.58687e-01,2.63038e-01,
-2.13902e-01,-4.50096e-01,3.15293e-01,5.37505e-01,2.56643e-01,-8.12269e-01,8.23244e-02,1.12314e+00,-1.41840e+00,-1.00526e+00,4.25501e-01,-4.38066e-01,-2.21072e-01,-3.96107e-01,-1.85813e-01,1.38187e-01,7.77628e-02,-2.39169e-01,2.54677e-01,1.43174e-01,-3.32108e-01,-3.19392e-01,9.55251e-02,-4.22467e-02,-1.27123e+00,-2.45445e-01,3.19618e-01,-4.59560e-01,-5.15357e-02,3.30148e-01,2.64225e-01,-3.50108e-02,
-1.57171e-02,-1.36209e-01,-4.18013e-01,-4.84497e-01,1.71604e-01,-7.04909e-01,1.06603e-01,-6.09690e-01,-1.54037e-01,4.15182e-01,2.41279e-01,-3.11952e-02,-8.42333e-01,9.30094e-02,1.82157e-01,7.46748e-02,-1.21121e-01,-2.36002e-01,-7.33335e-01,-3.32650e-01,3.04664e-01,-3.03790e-01,6.66761e-01,-7.49499e-01,-4.19909e-02,-4.67134e-02,-9.19570e-01,6.80165e-01,-7.78337e-01,-3.19590e-01,-2.57096e+00,2.64498e-01,
2.33782e-01,2.15957e-01,-1.95122e-01,1.00338e-01,-2.40053e-01,-7.28635e-01,-1.44322e-01,4.66688e-01,-8.77491e-01,-3.28313e-01,-2.60911e-01,-4.10437e-01,-1.10065e-01,-4.90515e-01,-3.17000e-02,1.97677e-01,1.72521e-01,2.16966e-01,-2.51889e-01,-1.06270e-01,-6.09823e-02,-9.90108e-01,3.79482e-01,-2.34203e-01,-5.29219e-01,-1.38909e-01,-2.46505e-01,-5.13837e-01,-6.85585e-01,-1.24123e+00,-5.82961e-02,-4.64714e-01,
4.70880e-02,3.98382e-02,-6.59083e-01,3.66796e-01,-5.96067e-01,-1.37267e+00,-1.91266e-01,-7.23302e-01,-6.07951e-01,-6.66328e-01,1.96054e-01,-8.07228e-01,6.59595e-01,2.20620e-01,4.40836e-02,1.11591e-01,-6.95748e-02,-1.03373e-01,4.74122e-03,7.53605e-01,-2.37142e-01,-2.92855e-01,-4.57216e-01,6.12094e-01,-5.30955e-01,2.19633e-01,6.14730e-01,-1.55886e+00,4.94903e-01,-1.01752e+00,-7.62206e-01,-8.68835e-01,
3.34659e-01,6.22910e-02,-5.52168e-01,-1.84306e-01,3.82278e-01,-2.64483e-01,1.27004e-01,-8.92171e-01,-1.11525e+00,-1.16135e-01,4.16040e-02,2.33130e-01,-4.22437e-01,-5.87065e-01,4.64251e-02,8.22573e-03,3.79208e-01,-3.39489e-01,-3.32050e-01,-9.55993e-01,2.91068e-01,-1.18308e+00,-7.36204e-01,-5.63650e-01,-1.31275e-01,-2.19146e-01,-9.63867e-01,2.03184e-01,-5.76831e-01,-2.14160e-01,-1.74942e+00,-6.33236e-02,
-2.65296e-01,2.65936e-01,4.03177e-01,1.65718e-01,1.33982e-01,-4.33031e-01,2.40495e-02,3.59386e-01,-2.12620e-01,3.91513e-01,-2.01587e-01,-3.45186e-01,-1.24972e-01,4.67497e-03,6.22674e-01,9.30379e-02,4.63017e-01,1.30458e-01,-2.68811e-01,-3.19251e-01,1.90045e-01,-5.28945e-01,-3.44005e-01,8.21510e-03,-9.35441e-01,6.62843e-01,-1.99548e-01,-5.85626e-02,-1.17705e+00,-6.20751e-01,-6.30446e-01,-6.83622e-01,
4.63525e-02,3.07601e-02,4.01097e-02,9.36368e-02,-2.35967e-01,-6.98230e-01,6.97126e-02,-2.90833e-01,-1.07657e+00,-1.17022e-01,2.31452e-01,-7.01130e-01,-2.11880e-01,-5.15830e-01,2.15026e-01,-3.46384e-02,2.70023e-01,-1.51169e-01,-6.12873e-01,3.62486e-02,-1.15403e-01,-1.18993e+00,3.24821e-01,-1.43378e-01,-1.01292e+00,-1.71679e-01,-3.78088e-01,-4.30290e-01,-7.72654e-01,-1.05000e+00,-5.09672e-01,-1.96526e-01,
-1.34956e-01,-2.65583e-02,5.96092e-03,-4.42847e-02,-1.96355e-01,1.08744e-01,1.21599e-01,-8.11938e-02,4.03246e-02,7.40143e-02,-1.65893e-02,-1.56586e-01,-1.70742e-01,-1.88560e-01,1.03821e-01,-6.87168e-02,-1.28019e-01,-5.01456e-02,-1.85601e-01,-1.70374e-01,-3.52905e-02,-2.87498e-02,-1.16326e-02,3.52172e-02,-1.52481e-01,-9.83437e-02,-2.02278e-01,-1.13548e-01,-1.67642e-02,9.09603e-03,-8.94411e-03,-1.20530e-01,
3.29794e-01,1.82105e-01,-1.11020e+00,4.54648e-01,-8.30066e-01,-1.14713e+00,-7.06733e-02,-1.07536e+00,-1.59201e-01,-8.63050e-01,-1.61333e-01,-1.26953e-01,4.00993e-01,1.70422e-01,-6.30946e-03,2.25530e-02,3.26806e-02,4.35502e-03,2.67080e-01,8.14166e-01,2.26691e-01,-2.57359e-01,-3.45825e-01,5.07799e-01,-7.44399e-01,1.94451e-01,4.09599e-01,-1.61516e+00,-1.34379e-01,-5.27796e-01,-1.36128e-01,-6.10187e-01,
-3.31779e-01,-3.05150e-01,6.51784e-01,-4.42164e-01,-3.23266e-01,7.94192e-02,-1.54814e-01,-2.07112e+00,-1.03877e-01,-1.38785e+00,3.20662e-02,2.43496e-01,-1.14467e-01,1.24873e-01,1.73061e-01,3.62068e-01,-1.68560e-01,-2.87280e-01,-7.38026e-01,7.50240e-02,1.58953e-01,3.90021e-01,-4.37233e-01,-5.82539e-02,3.90111e-01,-2.21350e-01,1.69122e-01,3.45589e-01,7.25433e-01,9.03833e-01,-5.45233e-01,8.28257e-02,
3.22632e-01,
5.32387e-01,
2.54963e-01,
-7.17044e-02,
-2.65265e-01,
3.19992e-02,
3.98057e-01,
-1.55391e-01,
1.85000e-01,
4.88363e-01,
3.53164e-01,
8.90983e-02,
6.45897e-01,
-2.24702e-01,
1.36765e-01,
-3.23679e-01,
2.22989e-01,
-4.57509e-02,
-1.40084e-01,
1.69278e-01,
5.99255e-01,
-5.39712e-01,
1.72538e-01,
2.62938e-01,
7.93123e-01,
1.47332e-02,
3.06330e-01,
4.14431e-01,
7.03950e-01,
4.44688e-02,
3.22835e-02,
-2.96309e-01,
2.69244e-01,2.12677e-01,-1.69740e+00,3.84031e-04,-3.97976e-01,-3.59850e-01,-3.48398e-01,-2.08567e-01,6.00847e-03,8.72653e-01,-3.13008e-01,-2.62965e-01,-2.93440e-01,-6.47824e-03,-4.80350e-01,-1.94653e-01,-5.36933e-03,-6.86984e-01,-4.37043e-01,3.63991e-01,-2.83335e-01,-1.00632e-01,-3.28051e-01,2.60556e-01,1.42314e-01,-1.23431e-01,1.22517e-01,1.13377e-01,5.64449e-02,-1.80957e-01,7.22987e-02,2.31836e-01,
1.69105e-01,-3.03387e-01,1.37766e-01,1.48461e-01,1.11126e-01,9.50681e-02,7.41702e-01,8.67751e-02,4.94825e-01,-1.03138e-01,4.55435e-01,8.01794e-02,2.69716e-01,5.95282e-02,4.24398e-01,2.70153e-01,6.21975e-01,9.63189e-03,1.71673e-01,3.19669e-01,3.33331e-02,1.21096e-01,4.31876e-01,7.09168e-01,-6.09345e-01,-1.70177e-02,7.64151e-01,-1.59016e-01,-2.31864e-01,-3.04286e-02,1.42733e-02,-7.28329e-02,
-6.68802e-02,-2.11383e-01,-9.26841e-02,1.13315e-01,-4.62123e-02,-3.55698e-01,-2.02878e-01,-1.93444e-01,-1.62532e-01,4.43928e-02,2.33215e-02,1.06555e-01,-5.80281e-02,1.09761e-01,8.67516e-02,-1.33477e-02,1.15233e-01,-1.46505e-01,-8.89233e-02,-1.57148e-01,5.62408e-02,-2.09973e-01,6.54385e-02,1.16931e-01,-1.70069e-01,1.19634e-02,1.26211e-01,8.58963e-02,1.55694e-01,9.82433e-02,-5.53409e-02,1.93917e-02,
-1.21534e-01,-4.45985e-01,-3.14545e-02,-4.63931e-02,1.94002e-02,-2.41635e-02,5.07784e-01,-4.13427e-01,4.86767e-01,-6.01806e-03,-7.40287e-02,5.75788e-01,-1.65118e-01,-1.20224e-01,1.88974e-01,-1.56922e-01,4.81265e-01,7.04979e-02,2.27738e-01,2.91175e-01,-4.46360e-02,-1.03285e+00,6.58671e-02,3.90518e-01,1.07114e-01,-1.42147e+00,1.73358e-01,2.23545e-01,-6.46430e-02,-3.49241e-02,-1.09125e+00,-3.62833e-01,
2.03774e-02,-8.82492e-01,7.29701e-02,8.27982e-02,-1.58029e-01,3.40851e-03,2.42480e-01,1.12997e-02,5.76392e-01,-4.39557e-02,1.85647e-01,1.44402e-01,-3.82509e-01,-1.41261e-01,4.97973e-01,-6.56779e-02,4.93433e-01,9.05383e-02,8.00368e-03,7.12662e-01,-3.68785e-01,2.17006e-02,-1.69742e-01,6.84752e-01,-1.84823e-01,-2.77842e-02,1.43701e-01,-1.57116e-01,-2.90178e-01,1.06059e-01,-5.62976e-02,-2.83447e-02,
3.92061e-01,-7.20318e-01,-8.82764e-02,-1.96441e-01,1.08250e+00,8.07794e-01,4.67192e-02,9.59107e-01,3.53745e-02,1.39839e+00,2.74082e-01,6.98661e-01,-1.05017e+00,-1.34198e-01,-1.38655e-01,7.02558e-01,-1.09821e-01,1.30490e-01,1.45237e-01,-2.95942e-02,-2.17044e+00,-1.31761e-02,9.42343e-01,-1.35723e-01,-1.46038e+00,-5.29738e-02,9.47344e-02,-9.34623e-01,-3.39371e+00,-3.88948e-02,4.36280e-02,-2.87052e-02,
3.69251e-01,-1.21134e-01,-2.22116e-01,4.04491e-02,5.42541e-02,-8.52737e-02,2.76725e-01,-6.80427e-02,-3.86719e-01,3.84596e-01,-5.68331e-01,-2.65308e-01,5.04216e-02,6.54951e-02,-3.40121e-01,7.69428e-02,2.06724e-01,-1.02358e-02,1.21924e-01,2.76122e-01,-9.18476e-02,9.32207e-03,1.03312e-01,-4.66003e-01,2.66377e-01,1.32564e-02,-1.20227e-01,-3.88867e-03,9.68878e-02,-1.13687e-01,1.45641e-02,-3.78621e-02,
-3.53041e-02,1.40285e-01,-7.78169e-02,-4.30328e-02,-7.52867e-02,-1.67248e-01,-2.18099e-01,5.39169e-02,-8.91509e-02,-1.78111e-01,7.82285e-02,-1.21540e-01,-1.21990e-01,-1.28596e-01,-5.51775e-03,-1.42351e-02,1.21684e-01,-1.13857e-01,-1.45249e-01,-1.78594e-01,1.08090e-01,-1.56862e-02,8.25202e-02,-4.34982e-02,-4.97816e-02,-1.40888e-01,-1.02567e-01,-4.83520e-02,-7.71768e-02,1.60683e-01,-9.35447e-02,2.66324e-02,
6.19990e-01,-6.68623e-01,2.79679e-01,-1.12751e-01,-4.42865e-01,-5.81623e-01,-6.41887e-01,-2.99021e-01,-5.35557e-02,-2.83831e-02,-1.92498e-02,-1.93011e+00,5.79013e-02,-9.66069e-02,1.27409e-01,-3.38671e-01,-2.00392e-02,-2.75742e-01,-8.20780e-02,3.19022e-01,-6.52222e-01,-1.71717e-01,-5.38989e-01,-4.26895e-02,1.52457e+00,-1.39913e-01,-1.24272e-01,8.66813e-01,-6.27662e-01,7.21656e-02,8.67282e-02,4.21843e-01,
-7.63492e-01,2.88970e-01,7.23882e-01,-1.33340e+00,-1.36697e-01,-1.88809e-01,-2.98649e-01,-1.44152e-01,-1.91373e-01,-4.73309e-01,4.22061e-01,-2.27246e-02,1.32190e-01,-1.99209e-02,4.90972e-01,-1.30991e+00,-1.18714e-01,2.55592e-01,-3.62604e-01,-2.80448e-01,-1.59815e-01,-5.82733e-01,-4.54269e-01,-1.83180e-01,1.77304e-01,5.77686e-02,-6.83444e-02,2.70960e-01,-2.95756e-01,1.03329e-01,-9.97029e-02,-4.00732e-01,
-1.37486e-01,1.28285e+00,-4.62598e-02,-5.54478e-01,-1.55951e-01,-5.07796e-03,-5.43276e-01,-1.02991e-01,-5.19861e-01,2.44468e-01,-5.42445e-01,2.05471e-01,7.57646e-02,1.02309e-01,-1.62871e+00,-5.86514e-01,-1.69775e+00,1.38894e-01,-2.88078e-01,-9.04068e-01,5.71317e-01,-1.34905e+00,-5.57619e-02,-6.00690e-01,2.20070e-01,3.00552e-01,6.29655e-01,-5.42927e-01,7.14345e-01,-1.40945e-01,8.83985e-02,-2.98516e-01,
5.34721e-01,2.14360e-01,-2.67745e+00,3.05997e-02,-2.50763e-02,-4.01624e-03,1.17239e-01,-4.24337e-03,-3.05586e-02,1.67011e+00,-1.58358e-01,1.92529e-02,-3.12995e-01,3.58765e-02,-1.30218e-01,-1.27441e-02,-6.69759e-02,-3.35775e-02,-2.40183e-02,4.69187e-01,-5.58952e-01,-2.29927e-02,6.45557e-01,1.23110e-01,1.86547e-01,-1.97010e-02,5.27106e-02,-1.02996e-01,-5.15793e-02,3.90909e-02,-9.69329e-04,-3.27964e-02,
-4.31448e-01,-7.83853e-01,-1.53648e-01,2.54033e-01,1.50289e-01,1.91503e-01,1.14260e-01,2.97433e-01,1.05621e-01,-2.99579e-01,2.07771e-03,-1.31294e-01,-1.96624e+00,-1.41434e-01,2.18943e-01,2.58128e-01,-2.24786e-01,4.33337e-02,1.13940e-01,-3.56407e-01,-1.57294e+00,-4.93662e-03,4.14095e-01,4.82800e-02,-3.93730e-01,1.83296e-01,1.80572e-01,-4.34335e-01,-1.57016e+00,1.01780e-01,2.38899e-01,5.52182e-02,
-1.99271e-01,-8.79418e-02,-2.37880e-02,-2.90278e-01,-1.07383e-01,-1.04504e-01,-2.20274e-02,6.65844e-02,2.66306e-02,-3.21688e-02,2.75233e-02,1.85220e-01,6.29795e-02,1.53793e-02,-1.47932e-01,6.97456e-02,-1.12032e-01,-9.83760e-02,-1.51654e-01,-1.70048e-01,-1.45917e-01,-8.24956e-02,1.37628e-01,-7.07027e-02,-1.72082e-01,-9.98178e-02,9.99126e-02,-6.24332e-05,-1.73746e-01,9.55355e-02,4.70626e-02,6.45104e-02,
-5.71443e-02,5.68450e-01,1.83727e-01,-1.28730e-01,6.43682e-01,3.50547e-01,4.46852e-02,5.95202e-01,1.19028e-01,-5.52052e-01,1.06857e-01,-1.59810e-01,5.54645e-01,1.81984e-01,-2.36679e-01,4.25103e-01,-1.97142e-01,9.44943e-02,3.78271e-01,-6.69594e-02,1.68953e-01,2.91813e-02,2.40411e-01,3.64884e-01,4.78378e-01,-3.54055e-04,-9.24350e-02,-2.09354e-01,2.85620e-02,-1.63262e-01,1.71607e-01,-8.99064e-03,
8.12410e-02,-1.48768e+00,2.13606e-01,3.03387e-03,-6.69144e-02,4.43192e-02,3.34413e-01,-2.64476e-02,-7.56136e-01,-3.42639e-01,-7.09619e-01,1.15808e-01,-2.42908e+00,-7.21371e-02,-7.13486e-01,5.59124e-02,-4.86704e-01,1.16124e-01,-3.06329e-02,-1.11726e+00,-1.70073e+00,1.38202e-02,4.30409e-01,-8.93114e-01,3.28830e-04,2.35889e-01,-8.48777e-01,2.21984e-02,-2.32278e+00,-1.75370e-01,1.14914e-01,-5.99104e-02,
-1.12734e-01,-1.19405e+00,-5.73212e-02,8.43326e-02,2.47086e-02,-5.97486e-02,4.81901e-01,-3.39296e-01,3.60657e-01,-1.46240e-01,-2.01952e-01,4.78483e-01,-1.36294e+00,6.57129e-04,1.73065e-01,-6.01159e-02,3.48701e-01,1.69665e-01,1.25505e-01,-4.72656e-01,-1.68887e+00,-8.16324e-01,7.44769e-02,2.77529e-01,-4.06269e-01,-1.45669e+00,1.28684e-01,1.36347e-01,-2.06657e+00,-7.08396e-02,-9.79779e-01,-2.68751e-01,
-1.87977e-02,-6.82721e-04,-1.74516e-01,-2.45697e-01,-1.50899e-01,-5.24083e-02,-1.80727e-01,-1.16654e-01,1.91370e-02,-9.28951e-02,-8.10947e-03,4.69940e-02,-1.99455e-01,-1.14288e-01,-7.26107e-02,-9.15411e-02,-2.09078e-01,6.52525e-02,-1.44090e-01,-1.38793e-01,-1.92914e-01,-1.29561e-01,-6.60313e-02,1.16874e-02,7.89875e-02,-8.06227e-02,1.45591e-02,9.17007e-02,-8.27091e-02,1.58294e-01,-8.11074e-02,3.57957e-02,
-5.76928e-02,2.28861e-01,2.71981e-01,-5.26398e-01,-1.00374e-01,-7.59799e-02,-1.97474e-01,-2.44049e-01,8.23388e-02,1.61268e-01,-1.22845e-01,-1.81076e-02,-6.51918e-02,1.45800e-01,-1.70532e-01,1.84651e-01,-2.74298e-01,-3.50183e-01,-1.20466e-01,2.84549e-02,2.48480e-01,-2.04601e-01,1.42022e-01,-7.17848e-03,1.92245e-01,-1.67614e-02,-4.50120e-03,-2.18010e-01,6.41499e-02,-1.73011e-01,8.78302e-02,-1.76267e-01,
-4.06944e-02,1.06698e-02,-1.60083e-01,-3.74281e-02,-1.00382e-01,-3.87734e-02,5.34587e-02,4.13962e-02,-5.09470e-01,-8.33407e-02,-2.06830e-01,-1.78167e-01,-5.87707e-02,-3.62800e-02,1.94505e-01,7.38069e-02,2.49069e-01,-4.09588e-02,2.55936e-02,3.14891e-01,7.56814e-02,-8.04351e-02,2.16546e-01,-3.71293e-01,9.65222e-02,-1.15785e-02,-1.31797e-01,2.60969e-03,-1.34423e-01,1.12944e-02,-8.96165e-02,-1.58823e-01,
1.78566e-01,-1.13692e+00,-6.48329e-02,1.52755e-01,1.33932e-03,1.52090e-01,2.16375e-01,1.89847e-01,-3.35350e-01,4.73956e-03,-6.14089e-01,-1.39283e-01,-2.14422e+00,1.84514e-01,-4.49237e-01,2.67764e-01,-1.14298e-01,6.04265e-02,1.62581e-02,-3.31402e-01,-1.52267e+00,-6.58480e-03,4.13652e-01,-8.23679e-01,4.84572e-02,3.03129e-02,-1.12817e+00,2.51527e-01,-1.96380e+00,2.63012e-02,2.05634e-01,-3.30722e-02,
2.37630e-01,-3.95574e-01,4.06082e-02,-2.25874e-02,-4.83420e-02,-2.30535e-01,1.99772e-01,-2.85078e-01,2.76165e-01,2.46124e-01,-1.62689e-01,4.45310e-01,-2.04924e-01,-1.35303e-01,2.37701e-01,2.88119e-02,3.32638e-01,2.39166e-01,2.56372e-01,2.03480e-01,9.22061e-02,-7.13771e-01,-2.16831e-02,2.44776e-01,-1.10471e-01,-1.38270e+00,3.18002e-01,2.39832e-01,-4.49199e-02,1.71897e-02,-1.01237e+00,-4.01337e-01,
3.33209e-01,-2.73708e-01,9.93132e-02,-2.93042e-01,-1.72738e-01,1.38965e-01,-9.25956e-02,-8.74754e-01,-1.51869e-01,-3.94335e-02,-5.71324e-02,1.19362e-01,2.82169e-01,-9.38349e-02,-6.51970e-02,-6.50432e-01,-1.49287e-01,-4.95139e-01,-8.48455e-01,8.44385e-03,6.47260e-02,-2.04467e+00,-9.17723e-02,2.21169e-02,2.81126e-01,-2.26867e+00,6.84810e-02,2.47641e-01,8.19130e-02,8.50666e-02,-2.14955e+00,-2.27298e-01,
-5.98364e-01,9.72046e-01,1.71110e-01,-2.50977e-01,8.83985e-01,6.02493e-01,2.41913e-01,7.13007e-01,4.19223e-02,4.87329e-01,3.45707e-01,5.10305e-01,-2.30233e-01,1.58755e-02,-2.21456e-01,5.52354e-01,6.59802e-03,1.30077e-01,2.25642e-01,-4.75179e-01,5.40772e-01,3.94403e-02,8.08891e-01,7.53767e-02,-1.39871e+00,-4.33418e-02,-2.88353e-01,-6.05016e-01,2.67415e-01,-9.17097e-02,9.00434e-03,-7.24971e-02,
-1.04777e-01,-1.26973e-01,1.33286e-01,2.40300e-01,8.38822e-02,-1.10224e-01,1.28160e-01,-7.94623e-01,-2.18525e-01,1.40122e-02,1.48171e-02,1.12710e-01,1.08513e-01,-1.31799e-01,3.35646e-02,-5.48932e-01,-3.11088e-03,-3.65950e-01,-7.64396e-01,-7.89983e-01,7.90427e-02,-2.85990e+00,3.18534e-01,-2.19077e-01,1.31494e-01,-2.38059e+00,-1.78764e-02,-3.58512e-01,1.91348e-01,6.40553e-02,-1.91051e+00,-1.08972e+00,
1.14376e-01,-3.70239e-01,-3.31270e-02,-3.35107e-01,3.19552e-01,8.90614e-02,1.35632e-02,-1.25529e+00,-2.28311e-01,1.33905e-01,2.43394e-01,-5.94509e-02,-5.04722e-02,-9.23641e-02,-4.35618e-02,-1.16132e+00,4.56256e-02,1.99334e-02,-3.81204e-01,-4.15375e-01,-2.00528e-02,-2.42821e+00,2.67353e-01,-9.30020e-02,3.70984e-01,-2.40400e+00,-2.82172e-02,6.15330e-02,1.44018e-01,-1.53338e-01,-2.23064e+00,-7.53087e-01,
2.25016e-02,1.33566e-01,7.16503e-02,-7.59243e-01,-1.61894e+00,3.25288e-02,-2.09976e-01,-2.06539e-02,-2.52729e+00,2.53045e-01,-1.82654e+00,-1.54835e+00,1.64889e-01,-7.17374e-02,-1.83722e+00,-1.72206e+00,-1.00836e+00,-2.62803e-01,-1.83347e+00,-1.56478e+00,3.05384e-01,-1.21829e+00,1.71969e-01,-1.83912e+00,5.41676e-01,1.61085e-01,-2.27878e+00,-9.53681e-02,3.46183e-01,-1.58273e-01,-1.89954e-01,-1.75233e+00,
3.79359e-01,-2.22041e-01,-1.33730e-01,-1.93126e-01,1.35143e-01,2.79402e-01,-1.55090e-01,-8.37932e-01,7.35480e-02,-8.52648e-02,7.99953e-03,-4.20975e-02,-3.35808e-02,8.82545e-02,1.00620e-01,-9.22671e-01,3.54099e-02,-3.79074e-01,-8.33929e-01,-9.56813e-02,6.08022e-02,-2.19974e+00,-1.73507e-01,-1.26771e-01,1.65058e-01,-2.13685e+00,-1.15422e-01,2.84421e-01,1.26670e-01,-7.12431e-02,-2.02564e+00,-5.17166e-01,
-1.34453e-01,-6.93704e-02,-2.25168e-01,1.02072e-01,2.22151e-01,2.39892e-01,1.92652e-02,3.07789e-01,2.44167e-01,1.59286e-01,2.60861e-02,2.46181e-01,-3.36950e-01,7.59283e-02,1.47967e-01,1.23260e-01,4.27581e-01,2.25846e-02,-1.35921e-02,8.34065e-02,2.10458e-01,-3.91380e-02,-2.65930e-01,3.98764e-01,-4.55716e-01,3.40574e-02,2.88399e-01,2.10136e-01,3.98428e-02,-2.09217e-01,-2.84996e-02,2.48490e-02,
-1.32996e-01,-9.06749e-02,6.09676e-02,2.96590e-01,-1.03329e-01,2.37423e-01,3.87727e-01,2.84332e-01,-9.93809e-01,-4.86939e-01,-1.44729e+00,-1.01572e-01,-1.66612e-01,-6.43094e-02,-9.88853e-01,2.90793e-01,-8.61143e-01,2.30272e-01,-1.20734e-02,-4.73729e-01,-9.58235e-02,-3.77114e-02,7.44797e-01,-1.51584e+00,2.25163e-01,4.32753e-01,-1.65100e+00,-3.90535e-03,3.96888e-02,-2.72808e-02,4.45444e-01,-1.48919e-02,
-2.67576e-01,1.97248e-01,4.16514e-01,-1.42957e-01,4.42227e-01,-4.40366e-01,-1.62081e-01,-1.89960e-01,-2.63052e-01,-1.52189e-01,4.83225e-02,1.40178e-01,1.52130e-01,2.45865e-02,-3.89598e-01,-2.57824e-01,-1.89104e-01,-2.18731e-01,-1.53457e-01,4.01681e-01,9.99454e-03,-6.23409e-01,1.37648e-02,2.30354e-01,-1.05675e-01,-2.16679e-01,1.40446e-01,-2.07269e-01,1.45305e-01,-1.43231e-01,-2.77458e-01,-1.87974e-01,
-5.88012e-01,-6.99697e-01,-2.45170e+00,4.04441e-02,-5.00886e-02,1.25485e-03,1.67452e-01,-1.10174e-02,1.28134e-01,-4.69646e-01,-1.44642e+00,1.51488e-02,-1.14939e+00,-1.87691e-02,1.02193e-01,-2.51123e-02,-2.81638e-02,-1.17870e-01,-2.08459e-02,8.02030e-01,-5.57850e-01,-4.12825e-02,1.33737e+00,8.85815e-01,-5.22155e+00,-3.76789e-02,3.31054e-01,-1.24541e+00,-1.08483e+00,-1.82589e-02,-3.84426e-03,-2.19606e-02,
3.10337e-01,
-2.09189e-01,
-2.08400e-01,
4.69709e-01,
3.30407e-01,
-4.25931e-01,
1.25883e-02,
-1.25957e-01,
1.83350e-01,
4.11399e-01,
-3.54056e-01,
2.36169e-02,
2.30011e-01,
-1.15697e-01,
-3.43072e-01,
3.10049e-01,
3.78852e-01,
-1.43418e-01,
-2.53528e-01,
-1.89747e-01,
1.67663e-01,
4.24442e-01,
3.00080e-01,
1.12924e-01,
3.06276e-01,
3.60635e-01,
3.70079e-01,
4.48842e-01,
1.10630e-01,
4.95845e-01,
-2.27310e-01,
3.59433e-02,
-1.16830e-01,-9.26418e-02,-9.16138e-02,-3.05194e-02,-9.74090e-03,-2.15167e-01,-1.53105e-02,1.04758e-01,-7.53031e-01,3.89116e-02,-1.35299e-01,4.25384e-02,1.32183e-01,4.39482e-02,-9.38071e-02,-3.45643e-02,-1.10050e-01,-7.13023e-02,2.87016e-01,-9.30201e-03,8.78854e-02,1.59837e-01,4.55739e-01,3.15277e-01,-1.26170e-01,-2.31458e-01,2.36096e-01,-6.18038e-02,3.06990e-02,-4.37036e-02,9.71460e-02,-3.93545e-02,
4.15727e-01,-1.49900e-02,-3.11977e-02,5.15798e-03,1.79459e-02,-6.05872e-03,1.01902e-02,-1.26638e-01,3.79829e-02,-5.75627e-01,-2.71098e-02,2.25796e-01,3.82912e-02,1.58571e-02,-1.83934e-02,-8.17610e-03,6.89941e-02,-6.53325e-02,1.11043e-01,-7.51283e-03,-4.26134e-03,-2.24799e-02,-1.41516e-01,2.88039e-02,-1.21499e-01,1.48780e-01,-6.81195e-02,-3.44905e-02,-2.47918e-02,-7.64388e-03,-5.45965e-01,-1.31486e-01,
1.16241e-02,2.74279e-01,-2.78034e-03,-5.11761e-01,-2.36900e-01,2.18866e-02,3.20871e-02,-6.32967e-02,-2.13287e-03,1.50574e-03,-1.02770e+00,-7.21782e-03,-5.03966e-01,-2.99869e-02,-5.66032e-02,-7.45985e-01,9.98169e-01,-1.23558e-01,6.83272e-02,-6.59947e-03,-4.82859e-01,-3.46213e-01,-6.53358e-01,5.18300e-02,-1.14636e+00,-8.27283e-01,1.85720e+00,-7.91759e-01,-3.16492e-02,6.61070e-01,9.88343e-02,1.26803e-02,
1.14639e-01,
-2.53372e-02,
2.21863e-01,
